digraph Tree {
node [shape=box] ;
0 [label="X[63] <= 0.5\ngini = 0.6073\nsamples = 102\nvalue = [1, 4, 23, 59, 4, 1, 1, 2, 6, 1]\nclass = ulo:Eating"] ;
1 [label="X[82] <= 0.0001\ngini = 0.7503\nsamples = 62\nvalue = [1, 4, 20, 22, 4, 1, 1, 2, 6, 1]\nclass = ulo:Eating"] ;
0 -> 1 [labeldistance=2.5, labelangle=45, headlabel="True"] ;
2 [label="X[80] <= 0.0321\ngini = 0.4861\nsamples = 12\nvalue = [0, 1, 0, 8, 3, 0, 0, 0, 0, 0]\nclass = ulo:Eating"] ;
1 -> 2 ;
3 [label="X[79] <= 0.0001\ngini = 0.1975\nsamples = 9\nvalue = [0, 1, 0, 8, 0, 0, 0, 0, 0, 0]\nclass = ulo:Eating"] ;
2 -> 3 ;
4 [label="gini = 0.0\nsamples = 1\nvalue = [0, 1, 0, 0, 0, 0, 0, 0, 0, 0]\nclass = ulo:Dancing"] ;
3 -> 4 ;
5 [label="gini = 0.0\nsamples = 8\nvalue = [0, 0, 0, 8, 0, 0, 0, 0, 0, 0]\nclass = ulo:Eating"] ;
3 -> 5 ;
6 [label="gini = 0.0\nsamples = 3\nvalue = [0, 0, 0, 0, 3, 0, 0, 0, 0, 0]\nclass = ulo:Listening"] ;
2 -> 6 ;
7 [label="X[94] <= 0.1009\ngini = 0.74\nsamples = 50\nvalue = [1, 3, 20, 14, 1, 1, 1, 2, 6, 1]\nclass = ulo:Drinking"] ;
1 -> 7 ;
8 [label="X[94] <= 0.0053\ngini = 0.7452\nsamples = 38\nvalue = [1, 3, 17, 5, 1, 1, 1, 2, 6, 1]\nclass = ulo:Drinking"] ;
7 -> 8 ;
9 [label="X[84] <= 0.0009\ngini = 0.8316\nsamples = 28\nvalue = [1, 3, 8, 5, 1, 1, 1, 2, 5, 1]\nclass = ulo:Drinking"] ;
8 -> 9 ;
10 [label="gini = 0.6939\nsamples = 14\nvalue = [0, 1, 7, 2, 1, 0, 0, 2, 0, 1]\nclass = ulo:Drinking"] ;
9 -> 10 ;
11 [label="gini = 0.7857\nsamples = 14\nvalue = [1, 2, 1, 3, 0, 1, 1, 0, 5, 0]\nclass = ulo:Shopping"] ;
9 -> 11 ;
12 [label="X[89] <= 0.529\ngini = 0.18\nsamples = 10\nvalue = [0, 0, 9, 0, 0, 0, 0, 0, 1, 0]\nclass = ulo:Drinking"] ;
8 -> 12 ;
13 [label="gini = 0.0\nsamples = 9\nvalue = [0, 0, 9, 0, 0, 0, 0, 0, 0, 0]\nclass = ulo:Drinking"] ;
12 -> 13 ;
14 [label="gini = 0.0\nsamples = 1\nvalue = [0, 0, 0, 0, 0, 0, 0, 0, 1, 0]\nclass = ulo:Shopping"] ;
12 -> 14 ;
15 [label="X[84] <= 0.085\ngini = 0.375\nsamples = 12\nvalue = [0, 0, 3, 9, 0, 0, 0, 0, 0, 0]\nclass = ulo:Eating"] ;
7 -> 15 ;
16 [label="X[84] <= 0.0003\ngini = 0.18\nsamples = 10\nvalue = [0, 0, 1, 9, 0, 0, 0, 0, 0, 0]\nclass = ulo:Eating"] ;
15 -> 16 ;
17 [label="gini = 0.0\nsamples = 1\nvalue = [0, 0, 1, 0, 0, 0, 0, 0, 0, 0]\nclass = ulo:Drinking"] ;
16 -> 17 ;
18 [label="gini = 0.0\nsamples = 9\nvalue = [0, 0, 0, 9, 0, 0, 0, 0, 0, 0]\nclass = ulo:Eating"] ;
16 -> 18 ;
19 [label="gini = 0.0\nsamples = 2\nvalue = [0, 0, 2, 0, 0, 0, 0, 0, 0, 0]\nclass = ulo:Drinking"] ;
15 -> 19 ;
20 [label="X[86] <= 0.0001\ngini = 0.1388\nsamples = 40\nvalue = [0, 0, 3, 37, 0, 0, 0, 0, 0, 0]\nclass = ulo:Eating"] ;
0 -> 20 [labeldistance=2.5, labelangle=-45, headlabel="False"] ;
21 [label="gini = 0.0\nsamples = 1\nvalue = [0, 0, 1, 0, 0, 0, 0, 0, 0, 0]\nclass = ulo:Drinking"] ;
20 -> 21 ;
22 [label="X[78] <= 0.0\ngini = 0.0973\nsamples = 39\nvalue = [0, 0, 2, 37, 0, 0, 0, 0, 0, 0]\nclass = ulo:Eating"] ;
20 -> 22 ;
23 [label="gini = 0.0\nsamples = 1\nvalue = [0, 0, 1, 0, 0, 0, 0, 0, 0, 0]\nclass = ulo:Drinking"] ;
22 -> 23 ;
24 [label="X[79] <= 0.2597\ngini = 0.0512\nsamples = 38\nvalue = [0, 0, 1, 37, 0, 0, 0, 0, 0, 0]\nclass = ulo:Eating"] ;
22 -> 24 ;
25 [label="gini = 0.0\nsamples = 36\nvalue = [0, 0, 0, 36, 0, 0, 0, 0, 0, 0]\nclass = ulo:Eating"] ;
24 -> 25 ;
26 [label="X[88] <= 0.0283\ngini = 0.5\nsamples = 2\nvalue = [0, 0, 1, 1, 0, 0, 0, 0, 0, 0]\nclass = ulo:Drinking"] ;
24 -> 26 ;
27 [label="gini = 0.0\nsamples = 1\nvalue = [0, 0, 1, 0, 0, 0, 0, 0, 0, 0]\nclass = ulo:Drinking"] ;
26 -> 27 ;
28 [label="gini = 0.0\nsamples = 1\nvalue = [0, 0, 0, 1, 0, 0, 0, 0, 0, 0]\nclass = ulo:Eating"] ;
26 -> 28 ;
}