digraph Tree {
node [shape=box] ;
0 [label="X[59] <= 0.0619\ngini = 0.8818\nsamples = 77\nvalue = [6, 5, 16, 6, 9, 9, 6, 5, 10, 5]\nclass = ulo:Eating|ulo:Food"] ;
1 [label="X[62] <= 0.206\ngini = 0.8511\nsamples = 60\nvalue = [5, 4, 16, 5, 8, 0, 3, 5, 10, 4]\nclass = ulo:Eating|ulo:Food"] ;
0 -> 1 [labeldistance=2.5, labelangle=45, headlabel="True"] ;
2 [label="X[49] <= 0.0361\ngini = 0.8476\nsamples = 55\nvalue = [5, 4, 16, 5, 8, 0, 3, 5, 5, 4]\nclass = ulo:Eating|ulo:Food"] ;
1 -> 2 ;
3 [label="X[64] <= 0.8418\ngini = 0.8345\nsamples = 21\nvalue = [5, 0, 3, 1, 0, 0, 2, 3, 3, 4]\nclass = ulo:Drinking|ulo:Beer"] ;
2 -> 3 ;
4 [label="X[52] <= 0.0238\ngini = 0.8025\nsamples = 18\nvalue = [5, 0, 3, 1, 0, 0, 2, 0, 3, 4]\nclass = ulo:Drinking|ulo:Beer"] ;
3 -> 4 ;
5 [label="gini = 0.7822\nsamples = 15\nvalue = [5, 0, 3, 1, 0, 0, 2, 0, 3, 1]\nclass = ulo:Drinking|ulo:Beer"] ;
4 -> 5 ;
6 [label="gini = 0.0\nsamples = 3\nvalue = [0, 0, 0, 0, 0, 0, 0, 0, 0, 3]\nclass = ulo:Watching|ulo:Exhibition"] ;
4 -> 6 ;
7 [label="gini = 0.0\nsamples = 3\nvalue = [0, 0, 0, 0, 0, 0, 0, 3, 0, 0]\nclass = ulo:Sitting|ulo:Terrace"] ;
3 -> 7 ;
8 [label="X[55] <= 0.0001\ngini = 0.763\nsamples = 34\nvalue = [0, 4, 13, 4, 8, 0, 1, 2, 2, 0]\nclass = ulo:Eating|ulo:Food"] ;
2 -> 8 ;
9 [label="X[52] <= 0.0009\ngini = 0.6173\nsamples = 9\nvalue = [0, 2, 0, 0, 5, 0, 1, 1, 0, 0]\nclass = ulo:Eating|ulo:Lunch"] ;
8 -> 9 ;
10 [label="gini = 0.2778\nsamples = 6\nvalue = [0, 0, 0, 0, 5, 0, 1, 0, 0, 0]\nclass = ulo:Eating|ulo:Lunch"] ;
9 -> 10 ;
11 [label="gini = 0.4444\nsamples = 3\nvalue = [0, 2, 0, 0, 0, 0, 0, 1, 0, 0]\nclass = ulo:Drinking|ulo:Coffee"] ;
9 -> 11 ;
12 [label="X[61] <= 0.0006\ngini = 0.6752\nsamples = 25\nvalue = [0, 2, 13, 4, 3, 0, 0, 1, 2, 0]\nclass = ulo:Eating|ulo:Food"] ;
8 -> 12 ;
13 [label="gini = 0.7911\nsamples = 15\nvalue = [0, 1, 4, 4, 3, 0, 0, 1, 2, 0]\nclass = ulo:Eating|ulo:Food"] ;
12 -> 13 ;
14 [label="gini = 0.18\nsamples = 10\nvalue = [0, 1, 9, 0, 0, 0, 0, 0, 0, 0]\nclass = ulo:Eating|ulo:Food"] ;
12 -> 14 ;
15 [label="gini = 0.0\nsamples = 5\nvalue = [0, 0, 0, 0, 0, 0, 0, 0, 5, 0]\nclass = ulo:Watching|ulo:Architecture"] ;
1 -> 15 ;
16 [label="X[63] <= 0.055\ngini = 0.6713\nsamples = 17\nvalue = [1, 1, 0, 1, 1, 9, 3, 0, 0, 1]\nclass = ulo:Shopping|ulo:Fashion"] ;
0 -> 16 [labeldistance=2.5, labelangle=-45, headlabel="False"] ;
17 [label="X[54] <= 0.0081\ngini = 0.314\nsamples = 11\nvalue = [1, 0, 0, 0, 0, 9, 1, 0, 0, 0]\nclass = ulo:Shopping|ulo:Fashion"] ;
16 -> 17 ;
18 [label="gini = 0.0\nsamples = 9\nvalue = [0, 0, 0, 0, 0, 9, 0, 0, 0, 0]\nclass = ulo:Shopping|ulo:Fashion"] ;
17 -> 18 ;
19 [label="X[0] <= 0.5\ngini = 0.5\nsamples = 2\nvalue = [1, 0, 0, 0, 0, 0, 1, 0, 0, 0]\nclass = ulo:Drinking|ulo:Beer"] ;
17 -> 19 ;
20 [label="gini = 0.0\nsamples = 1\nvalue = [1, 0, 0, 0, 0, 0, 0, 0, 0, 0]\nclass = ulo:Drinking|ulo:Beer"] ;
19 -> 20 ;
21 [label="gini = 0.0\nsamples = 1\nvalue = [0, 0, 0, 0, 0, 0, 1, 0, 0, 0]\nclass = ulo:Shopping|ulo:Gifts"] ;
19 -> 21 ;
22 [label="X[58] <= 0.0227\ngini = 0.7778\nsamples = 6\nvalue = [0, 1, 0, 1, 1, 0, 2, 0, 0, 1]\nclass = ulo:Shopping|ulo:Gifts"] ;
16 -> 22 ;
23 [label="X[51] <= 0.0013\ngini = 0.6667\nsamples = 3\nvalue = [0, 0, 0, 1, 1, 0, 0, 0, 0, 1]\nclass = ulo:Eating|ulo:Italian_Cuisine"] ;
22 -> 23 ;
24 [label="gini = 0.0\nsamples = 1\nvalue = [0, 0, 0, 1, 0, 0, 0, 0, 0, 0]\nclass = ulo:Eating|ulo:Italian_Cuisine"] ;
23 -> 24 ;
25 [label="X[61] <= 0.0281\ngini = 0.5\nsamples = 2\nvalue = [0, 0, 0, 0, 1, 0, 0, 0, 0, 1]\nclass = ulo:Eating|ulo:Lunch"] ;
23 -> 25 ;
26 [label="gini = 0.0\nsamples = 1\nvalue = [0, 0, 0, 0, 1, 0, 0, 0, 0, 0]\nclass = ulo:Eating|ulo:Lunch"] ;
25 -> 26 ;
27 [label="gini = 0.0\nsamples = 1\nvalue = [0, 0, 0, 0, 0, 0, 0, 0, 0, 1]\nclass = ulo:Watching|ulo:Exhibition"] ;
25 -> 27 ;
28 [label="X[49] <= 0.0001\ngini = 0.4444\nsamples = 3\nvalue = [0, 1, 0, 0, 0, 0, 2, 0, 0, 0]\nclass = ulo:Shopping|ulo:Gifts"] ;
22 -> 28 ;
29 [label="gini = 0.0\nsamples = 1\nvalue = [0, 1, 0, 0, 0, 0, 0, 0, 0, 0]\nclass = ulo:Drinking|ulo:Coffee"] ;
28 -> 29 ;
30 [label="gini = 0.0\nsamples = 2\nvalue = [0, 0, 0, 0, 0, 0, 2, 0, 0, 0]\nclass = ulo:Shopping|ulo:Gifts"] ;
28 -> 30 ;
}