digraph Tree {
node [shape=box] ;
0 [label="topic 9 <= 0.001\ngini = 0.564\nsamples = 66\nvalue = [4, 41, 10, 1, 10]\nclass = ulo:Eating"] ;
1 [label="topic 6 <= 0.097\ngini = 0.359\nsamples = 43\nvalue = [2, 34, 3, 0, 4]\nclass = ulo:Eating"] ;
0 -> 1 [labeldistance=2.5, labelangle=45, headlabel="True"] ;
2 [label="topic 11 <= 0.462\ngini = 0.252\nsamples = 36\nvalue = [2, 31, 2, 0, 1]\nclass = ulo:Eating"] ;
1 -> 2 ;
3 [label="topic 15 <= 0.363\ngini = 0.164\nsamples = 34\nvalue = [2, 31, 1, 0, 0]\nclass = ulo:Eating"] ;
2 -> 3 ;
4 [label="topic 0 <= 0.312\ngini = 0.116\nsamples = 33\nvalue = [1, 31, 1, 0, 0]\nclass = ulo:Eating"] ;
3 -> 4 ;
5 [label="gini = 0.062\nsamples = 31\nvalue = [1, 30, 0, 0, 0]\nclass = ulo:Eating"] ;
4 -> 5 ;
6 [label="gini = 0.5\nsamples = 2\nvalue = [0, 1, 1, 0, 0]\nclass = ulo:Eating"] ;
4 -> 6 ;
7 [label="gini = 0.0\nsamples = 1\nvalue = [1, 0, 0, 0, 0]\nclass = ulo:Drinking"] ;
3 -> 7 ;
8 [label="topic 7 <= 0.073\ngini = 0.5\nsamples = 2\nvalue = [0, 0, 1, 0, 1]\nclass = ulo:Shopping"] ;
2 -> 8 ;
9 [label="gini = 0.0\nsamples = 1\nvalue = [0, 0, 1, 0, 0]\nclass = ulo:Shopping"] ;
8 -> 9 ;
10 [label="gini = 0.0\nsamples = 1\nvalue = [0, 0, 0, 0, 1]\nclass = ulo:Watching"] ;
8 -> 10 ;
11 [label="topic 0 <= 0.0\ngini = 0.612\nsamples = 7\nvalue = [0, 3, 1, 0, 3]\nclass = ulo:Eating"] ;
1 -> 11 ;
12 [label="gini = 0.0\nsamples = 2\nvalue = [0, 2, 0, 0, 0]\nclass = ulo:Eating"] ;
11 -> 12 ;
13 [label="topic 11 <= 0.007\ngini = 0.56\nsamples = 5\nvalue = [0, 1, 1, 0, 3]\nclass = ulo:Watching"] ;
11 -> 13 ;
14 [label="gini = 0.0\nsamples = 3\nvalue = [0, 0, 0, 0, 3]\nclass = ulo:Watching"] ;
13 -> 14 ;
15 [label="topic 5 <= 0.0\ngini = 0.5\nsamples = 2\nvalue = [0, 1, 1, 0, 0]\nclass = ulo:Eating"] ;
13 -> 15 ;
16 [label="gini = 0.0\nsamples = 1\nvalue = [0, 1, 0, 0, 0]\nclass = ulo:Eating"] ;
15 -> 16 ;
17 [label="gini = 0.0\nsamples = 1\nvalue = [0, 0, 1, 0, 0]\nclass = ulo:Shopping"] ;
15 -> 17 ;
18 [label="topic 14 <= 0.0\ngini = 0.737\nsamples = 23\nvalue = [2, 7, 7, 1, 6]\nclass = ulo:Eating"] ;
0 -> 18 [labeldistance=2.5, labelangle=-45, headlabel="False"] ;
19 [label="topic 13 <= 0.0\ngini = 0.37\nsamples = 9\nvalue = [1, 1, 7, 0, 0]\nclass = ulo:Shopping"] ;
18 -> 19 ;
20 [label="topic 11 <= 0.0\ngini = 0.5\nsamples = 2\nvalue = [1, 1, 0, 0, 0]\nclass = ulo:Drinking"] ;
19 -> 20 ;
21 [label="gini = 0.0\nsamples = 1\nvalue = [1, 0, 0, 0, 0]\nclass = ulo:Drinking"] ;
20 -> 21 ;
22 [label="gini = 0.0\nsamples = 1\nvalue = [0, 1, 0, 0, 0]\nclass = ulo:Eating"] ;
20 -> 22 ;
23 [label="gini = 0.0\nsamples = 7\nvalue = [0, 0, 7, 0, 0]\nclass = ulo:Shopping"] ;
19 -> 23 ;
24 [label="topic 16 <= 0.067\ngini = 0.622\nsamples = 14\nvalue = [1, 6, 0, 1, 6]\nclass = ulo:Eating"] ;
18 -> 24 ;
25 [label="topic 6 <= 0.227\ngini = 0.494\nsamples = 9\nvalue = [0, 6, 0, 1, 2]\nclass = ulo:Eating"] ;
24 -> 25 ;
26 [label="topic 15 <= 0.181\ngini = 0.245\nsamples = 7\nvalue = [0, 6, 0, 1, 0]\nclass = ulo:Eating"] ;
25 -> 26 ;
27 [label="gini = 0.0\nsamples = 6\nvalue = [0, 6, 0, 0, 0]\nclass = ulo:Eating"] ;
26 -> 27 ;
28 [label="gini = 0.0\nsamples = 1\nvalue = [0, 0, 0, 1, 0]\nclass = ulo:Sitting"] ;
26 -> 28 ;
29 [label="gini = 0.0\nsamples = 2\nvalue = [0, 0, 0, 0, 2]\nclass = ulo:Watching"] ;
25 -> 29 ;
30 [label="topic 2 <= 0.0\ngini = 0.32\nsamples = 5\nvalue = [1, 0, 0, 0, 4]\nclass = ulo:Watching"] ;
24 -> 30 ;
31 [label="gini = 0.0\nsamples = 1\nvalue = [1, 0, 0, 0, 0]\nclass = ulo:Drinking"] ;
30 -> 31 ;
32 [label="gini = 0.0\nsamples = 4\nvalue = [0, 0, 0, 0, 4]\nclass = ulo:Watching"] ;
30 -> 32 ;
}