digraph Tree {
node [shape=box] ;
0 [label="X[2] <= 0.5\ngini = 0.9472\nsamples = 66\nvalue = [2, 5, 2, 1, 1, 1, 1, 2, 1, 10, 1, 1, 1, 2, 5, 1, 2, 1\n1, 1, 1, 1, 1, 1, 1, 2, 1, 1, 1, 1, 3, 4, 1, 1, 2, 2]\nclass = ulo:Eating|ulo:Food"] ;
1 [label="X[99] <= 0.197\ngini = 0.9498\nsamples = 57\nvalue = [2, 1, 2, 1, 1, 1, 1, 2, 1, 9, 1, 1, 1, 2, 1, 1, 2, 1\n1, 1, 1, 1, 1, 1, 1, 2, 1, 1, 1, 1, 3, 4, 1, 1, 2, 2]\nclass = ulo:Eating|ulo:Food"] ;
0 -> 1 [labeldistance=2.5, labelangle=45, headlabel="True"] ;
2 [label="X[59] <= 0.5\ngini = 0.9608\nsamples = 50\nvalue = [2, 1, 2, 1, 1, 1, 1, 2, 1, 5, 1, 1, 1, 2, 1, 1, 2, 0\n1, 1, 1, 1, 1, 1, 1, 2, 1, 1, 1, 1, 1, 4, 1, 1, 2, 2]\nclass = ulo:Eating|ulo:Food"] ;
1 -> 2 ;
3 [label="X[10] <= 0.5\ngini = 0.9592\nsamples = 48\nvalue = [2, 1, 2, 1, 1, 1, 1, 2, 1, 5, 1, 1, 1, 2, 1, 1, 2, 0\n1, 1, 1, 1, 1, 1, 1, 2, 1, 1, 1, 1, 1, 4, 1, 1, 0, 2]\nclass = ulo:Eating|ulo:Food"] ;
2 -> 3 ;
4 [label="X[96] <= 0.2609\ngini = 0.9575\nsamples = 46\nvalue = [2, 1, 2, 1, 1, 1, 1, 2, 1, 5, 1, 1, 1, 2, 1, 1, 2, 0\n1, 1, 1, 1, 1, 1, 1, 2, 1, 1, 1, 1, 1, 4, 1, 1, 0, 0]\nclass = ulo:Eating|ulo:Food"] ;
3 -> 4 ;
5 [label="gini = 0.9556\nsamples = 44\nvalue = [2, 1, 2, 1, 1, 1, 1, 0, 1, 5, 1, 1, 1, 2, 1, 1, 2, 0\n1, 1, 1, 1, 1, 1, 1, 2, 1, 1, 1, 1, 1, 4, 1, 1, 0, 0]\nclass = ulo:Eating|ulo:Food"] ;
4 -> 5 ;
6 [label="gini = 0.0\nsamples = 2\nvalue = [0, 0, 0, 0, 0, 0, 0, 2, 0, 0, 0, 0, 0, 0, 0, 0, 0, 0\n0, 0, 0, 0, 0, 0, 0, 0, 0, 0, 0, 0, 0, 0, 0, 0, 0, 0]\nclass = ulo:Eating|ulo:Fast_Food"] ;
4 -> 6 ;
7 [label="gini = 0.0\nsamples = 2\nvalue = [0, 0, 0, 0, 0, 0, 0, 0, 0, 0, 0, 0, 0, 0, 0, 0, 0, 0\n0, 0, 0, 0, 0, 0, 0, 0, 0, 0, 0, 0, 0, 0, 0, 0, 0, 2]\nclass = ulo:Watching|ulo:Show"] ;
3 -> 7 ;
8 [label="gini = 0.0\nsamples = 2\nvalue = [0, 0, 0, 0, 0, 0, 0, 0, 0, 0, 0, 0, 0, 0, 0, 0, 0, 0\n0, 0, 0, 0, 0, 0, 0, 0, 0, 0, 0, 0, 0, 0, 0, 0, 2, 0]\nclass = ulo:Watching|ulo:Movie"] ;
2 -> 8 ;
9 [label="X[83] <= 0.0001\ngini = 0.5714\nsamples = 7\nvalue = [0, 0, 0, 0, 0, 0, 0, 0, 0, 4, 0, 0, 0, 0, 0, 0, 0, 1\n0, 0, 0, 0, 0, 0, 0, 0, 0, 0, 0, 0, 2, 0, 0, 0, 0, 0]\nclass = ulo:Eating|ulo:Food"] ;
1 -> 9 ;
10 [label="X[99] <= 0.223\ngini = 0.4444\nsamples = 3\nvalue = [0, 0, 0, 0, 0, 0, 0, 0, 0, 0, 0, 0, 0, 0, 0, 0, 0, 1\n0, 0, 0, 0, 0, 0, 0, 0, 0, 0, 0, 0, 2, 0, 0, 0, 0, 0]\nclass = ulo:Sitting|ulo:Terrace"] ;
9 -> 10 ;
11 [label="gini = 0.0\nsamples = 1\nvalue = [0, 0, 0, 0, 0, 0, 0, 0, 0, 0, 0, 0, 0, 0, 0, 0, 0, 1\n0, 0, 0, 0, 0, 0, 0, 0, 0, 0, 0, 0, 0, 0, 0, 0, 0, 0]\nclass = ulo:Eating|ulo:Sushi"] ;
10 -> 11 ;
12 [label="gini = 0.0\nsamples = 2\nvalue = [0, 0, 0, 0, 0, 0, 0, 0, 0, 0, 0, 0, 0, 0, 0, 0, 0, 0\n0, 0, 0, 0, 0, 0, 0, 0, 0, 0, 0, 0, 2, 0, 0, 0, 0, 0]\nclass = ulo:Sitting|ulo:Terrace"] ;
10 -> 12 ;
13 [label="gini = 0.0\nsamples = 4\nvalue = [0, 0, 0, 0, 0, 0, 0, 0, 0, 4, 0, 0, 0, 0, 0, 0, 0, 0\n0, 0, 0, 0, 0, 0, 0, 0, 0, 0, 0, 0, 0, 0, 0, 0, 0, 0]\nclass = ulo:Eating|ulo:Food"] ;
9 -> 13 ;
14 [label="X[84] <= 0.0021\ngini = 0.5926\nsamples = 9\nvalue = [0, 4, 0, 0, 0, 0, 0, 0, 0, 1, 0, 0, 0, 0, 4, 0, 0, 0\n0, 0, 0, 0, 0, 0, 0, 0, 0, 0, 0, 0, 0, 0, 0, 0, 0, 0]\nclass = ulo:Drinking|ulo:Coffee"] ;
0 -> 14 [labeldistance=2.5, labelangle=-45, headlabel="False"] ;
15 [label="gini = 0.0\nsamples = 3\nvalue = [0, 0, 0, 0, 0, 0, 0, 0, 0, 0, 0, 0, 0, 0, 3, 0, 0, 0\n0, 0, 0, 0, 0, 0, 0, 0, 0, 0, 0, 0, 0, 0, 0, 0, 0, 0]\nclass = ulo:Eating|ulo:Lunch"] ;
14 -> 15 ;
16 [label="X[100] <= 0.0428\ngini = 0.5\nsamples = 6\nvalue = [0, 4, 0, 0, 0, 0, 0, 0, 0, 1, 0, 0, 0, 0, 1, 0, 0, 0\n0, 0, 0, 0, 0, 0, 0, 0, 0, 0, 0, 0, 0, 0, 0, 0, 0, 0]\nclass = ulo:Drinking|ulo:Coffee"] ;
14 -> 16 ;
17 [label="gini = 0.0\nsamples = 4\nvalue = [0, 4, 0, 0, 0, 0, 0, 0, 0, 0, 0, 0, 0, 0, 0, 0, 0, 0\n0, 0, 0, 0, 0, 0, 0, 0, 0, 0, 0, 0, 0, 0, 0, 0, 0, 0]\nclass = ulo:Drinking|ulo:Coffee"] ;
16 -> 17 ;
18 [label="X[43] <= 0.5\ngini = 0.5\nsamples = 2\nvalue = [0, 0, 0, 0, 0, 0, 0, 0, 0, 1, 0, 0, 0, 0, 1, 0, 0, 0\n0, 0, 0, 0, 0, 0, 0, 0, 0, 0, 0, 0, 0, 0, 0, 0, 0, 0]\nclass = ulo:Eating|ulo:Food"] ;
16 -> 18 ;
19 [label="gini = 0.0\nsamples = 1\nvalue = [0, 0, 0, 0, 0, 0, 0, 0, 0, 1, 0, 0, 0, 0, 0, 0, 0, 0\n0, 0, 0, 0, 0, 0, 0, 0, 0, 0, 0, 0, 0, 0, 0, 0, 0, 0]\nclass = ulo:Eating|ulo:Food"] ;
18 -> 19 ;
20 [label="gini = 0.0\nsamples = 1\nvalue = [0, 0, 0, 0, 0, 0, 0, 0, 0, 0, 0, 0, 0, 0, 1, 0, 0, 0\n0, 0, 0, 0, 0, 0, 0, 0, 0, 0, 0, 0, 0, 0, 0, 0, 0, 0]\nclass = ulo:Eating|ulo:Lunch"] ;
18 -> 20 ;
}