digraph Tree {
node [shape=box] ;
0 [label="shop=No <= 0.5\ngini = 0.4945\nsamples = 61\nvalue = [41, 10, 10]\nclass = ulo:Eating"] ;
1 [label="topic 9 <= 0.0016\ngini = 0.4628\nsamples = 11\nvalue = [4, 7, 0]\nclass = ulo:Shopping"] ;
0 -> 1 [labeldistance=2.5, labelangle=45, headlabel="True"] ;
2 [label="topic 3 <= 0.5403\ngini = 0.32\nsamples = 5\nvalue = [4, 1, 0]\nclass = ulo:Eating"] ;
1 -> 2 ;
3 [label="gini = 0.0\nsamples = 4\nvalue = [4, 0, 0]\nclass = ulo:Eating"] ;
2 -> 3 ;
4 [label="gini = 0.0\nsamples = 1\nvalue = [0, 1, 0]\nclass = ulo:Shopping"] ;
2 -> 4 ;
5 [label="gini = 0.0\nsamples = 6\nvalue = [0, 6, 0]\nclass = ulo:Shopping"] ;
1 -> 5 ;
6 [label="topic 6 <= 0.1186\ngini = 0.4088\nsamples = 50\nvalue = [37, 3, 10]\nclass = ulo:Eating"] ;
0 -> 6 [labeldistance=2.5, labelangle=-45, headlabel="False"] ;
7 [label="topic 14 <= 0.3328\ngini = 0.2368\nsamples = 38\nvalue = [33, 2, 3]\nclass = ulo:Eating"] ;
6 -> 7 ;
8 [label="topic 11 <= 0.4619\ngini = 0.1559\nsamples = 36\nvalue = [33, 2, 1]\nclass = ulo:Eating"] ;
7 -> 8 ;
9 [label="googletype=establishment|food|point_of_interest|store <= 0.5\ngini = 0.0571\nsamples = 34\nvalue = [33, 1, 0]\nclass = ulo:Eating"] ;
8 -> 9 ;
10 [label="gini = 0.0\nsamples = 32\nvalue = [32, 0, 0]\nclass = ulo:Eating"] ;
9 -> 10 ;
11 [label="gini = 0.5\nsamples = 2\nvalue = [1, 1, 0]\nclass = ulo:Eating"] ;
9 -> 11 ;
12 [label="topic 15 <= 0.1186\ngini = 0.5\nsamples = 2\nvalue = [0, 1, 1]\nclass = ulo:Shopping"] ;
8 -> 12 ;
13 [label="gini = 0.0\nsamples = 1\nvalue = [0, 1, 0]\nclass = ulo:Shopping"] ;
12 -> 13 ;
14 [label="gini = 0.0\nsamples = 1\nvalue = [0, 0, 1]\nclass = ulo:Watching"] ;
12 -> 14 ;
15 [label="gini = 0.0\nsamples = 2\nvalue = [0, 0, 2]\nclass = ulo:Watching"] ;
7 -> 15 ;
16 [label="topic 16 <= 0.4174\ngini = 0.5417\nsamples = 12\nvalue = [4, 1, 7]\nclass = ulo:Watching"] ;
6 -> 16 ;
17 [label="leisure=park <= 0.5\ngini = 0.3457\nsamples = 9\nvalue = [2, 0, 7]\nclass = ulo:Watching"] ;
16 -> 17 ;
18 [label="gini = 0.0\nsamples = 7\nvalue = [0, 0, 7]\nclass = ulo:Watching"] ;
17 -> 18 ;
19 [label="gini = 0.0\nsamples = 2\nvalue = [2, 0, 0]\nclass = ulo:Eating"] ;
17 -> 19 ;
20 [label="amenity=place_of_worship <= 0.5\ngini = 0.4444\nsamples = 3\nvalue = [2, 1, 0]\nclass = ulo:Eating"] ;
16 -> 20 ;
21 [label="gini = 0.0\nsamples = 2\nvalue = [2, 0, 0]\nclass = ulo:Eating"] ;
20 -> 21 ;
22 [label="gini = 0.0\nsamples = 1\nvalue = [0, 1, 0]\nclass = ulo:Shopping"] ;
20 -> 22 ;
}