digraph Tree {
node [shape=box] ;
0 [label="X[71] <= 0.5\ngini = 0.5643\nsamples = 66\nvalue = [4, 41, 10, 1, 10]\nclass = ulo:Eating"] ;
1 [label="X[100] <= 0.0016\ngini = 0.4628\nsamples = 11\nvalue = [0, 4, 7, 0, 0]\nclass = ulo:Shopping"] ;
0 -> 1 [labeldistance=2.5, labelangle=45, headlabel="True"] ;
2 [label="X[86] <= 0.0001\ngini = 0.32\nsamples = 5\nvalue = [0, 4, 1, 0, 0]\nclass = ulo:Eating"] ;
1 -> 2 ;
3 [label="gini = 0.0\nsamples = 1\nvalue = [0, 0, 1, 0, 0]\nclass = ulo:Shopping"] ;
2 -> 3 ;
4 [label="gini = 0.0\nsamples = 4\nvalue = [0, 4, 0, 0, 0]\nclass = ulo:Eating"] ;
2 -> 4 ;
5 [label="gini = 0.0\nsamples = 6\nvalue = [0, 0, 6, 0, 0]\nclass = ulo:Shopping"] ;
1 -> 5 ;
6 [label="X[97] <= 0.1186\ngini = 0.5058\nsamples = 55\nvalue = [4, 37, 3, 1, 10]\nclass = ulo:Eating"] ;
0 -> 6 [labeldistance=2.5, labelangle=-45, headlabel="False"] ;
7 [label="X[89] <= 0.3328\ngini = 0.3948\nsamples = 43\nvalue = [4, 33, 2, 1, 3]\nclass = ulo:Eating"] ;
6 -> 7 ;
8 [label="X[86] <= 0.4619\ngini = 0.3391\nsamples = 41\nvalue = [4, 33, 2, 1, 1]\nclass = ulo:Eating"] ;
7 -> 8 ;
9 [label="X[85] <= 0.4036\ngini = 0.2722\nsamples = 39\nvalue = [4, 33, 1, 1, 0]\nclass = ulo:Eating"] ;
8 -> 9 ;
10 [label="gini = 0.16\nsamples = 35\nvalue = [2, 32, 0, 1, 0]\nclass = ulo:Eating"] ;
9 -> 10 ;
11 [label="gini = 0.625\nsamples = 4\nvalue = [2, 1, 1, 0, 0]\nclass = ulo:Drinking"] ;
9 -> 11 ;
12 [label="X[49] <= 0.5\ngini = 0.5\nsamples = 2\nvalue = [0, 0, 1, 0, 1]\nclass = ulo:Shopping"] ;
8 -> 12 ;
13 [label="gini = 0.0\nsamples = 1\nvalue = [0, 0, 0, 0, 1]\nclass = ulo:Watching"] ;
12 -> 13 ;
14 [label="gini = 0.0\nsamples = 1\nvalue = [0, 0, 1, 0, 0]\nclass = ulo:Shopping"] ;
12 -> 14 ;
15 [label="gini = 0.0\nsamples = 2\nvalue = [0, 0, 0, 0, 2]\nclass = ulo:Watching"] ;
7 -> 15 ;
16 [label="X[91] <= 0.4174\ngini = 0.5417\nsamples = 12\nvalue = [0, 4, 1, 0, 7]\nclass = ulo:Watching"] ;
6 -> 16 ;
17 [label="X[66] <= 0.5\ngini = 0.3457\nsamples = 9\nvalue = [0, 2, 0, 0, 7]\nclass = ulo:Watching"] ;
16 -> 17 ;
18 [label="gini = 0.0\nsamples = 2\nvalue = [0, 2, 0, 0, 0]\nclass = ulo:Eating"] ;
17 -> 18 ;
19 [label="gini = 0.0\nsamples = 7\nvalue = [0, 0, 0, 0, 7]\nclass = ulo:Watching"] ;
17 -> 19 ;
20 [label="X[91] <= 0.5346\ngini = 0.4444\nsamples = 3\nvalue = [0, 2, 1, 0, 0]\nclass = ulo:Eating"] ;
16 -> 20 ;
21 [label="gini = 0.0\nsamples = 1\nvalue = [0, 0, 1, 0, 0]\nclass = ulo:Shopping"] ;
20 -> 21 ;
22 [label="gini = 0.0\nsamples = 2\nvalue = [0, 2, 0, 0, 0]\nclass = ulo:Eating"] ;
20 -> 22 ;
}