digraph Tree {
node [shape=box] ;
0 [label="X[17] <= 0.0013\ngini = 0.4945\nsamples = 61\nvalue = [41, 10, 10]\nclass = ulo:Eating"] ;
1 [label="X[14] <= 0.097\ngini = 0.3037\nsamples = 40\nvalue = [33, 3, 4]\nclass = ulo:Eating"] ;
0 -> 1 [labeldistance=2.5, labelangle=45, headlabel="True"] ;
2 [label="X[3] <= 0.4619\ngini = 0.169\nsamples = 33\nvalue = [30, 2, 1]\nclass = ulo:Eating"] ;
1 -> 2 ;
3 [label="X[0] <= 0.3116\ngini = 0.0624\nsamples = 31\nvalue = [30, 1, 0]\nclass = ulo:Eating"] ;
2 -> 3 ;
4 [label="gini = 0.0\nsamples = 29\nvalue = [29, 0, 0]\nclass = ulo:Eating"] ;
3 -> 4 ;
5 [label="X[11] <= 0.4512\ngini = 0.5\nsamples = 2\nvalue = [1, 1, 0]\nclass = ulo:Eating"] ;
3 -> 5 ;
6 [label="gini = 0.0\nsamples = 1\nvalue = [1, 0, 0]\nclass = ulo:Eating"] ;
5 -> 6 ;
7 [label="gini = 0.0\nsamples = 1\nvalue = [0, 1, 0]\nclass = ulo:Shopping"] ;
5 -> 7 ;
8 [label="X[12] <= 0.0118\ngini = 0.5\nsamples = 2\nvalue = [0, 1, 1]\nclass = ulo:Shopping"] ;
2 -> 8 ;
9 [label="gini = 0.0\nsamples = 1\nvalue = [0, 1, 0]\nclass = ulo:Shopping"] ;
8 -> 9 ;
10 [label="gini = 0.0\nsamples = 1\nvalue = [0, 0, 1]\nclass = ulo:Watching"] ;
8 -> 10 ;
11 [label="X[9] <= 0.0001\ngini = 0.6122\nsamples = 7\nvalue = [3, 1, 3]\nclass = ulo:Eating"] ;
1 -> 11 ;
12 [label="gini = 0.0\nsamples = 2\nvalue = [2, 0, 0]\nclass = ulo:Eating"] ;
11 -> 12 ;
13 [label="X[3] <= 0.0071\ngini = 0.56\nsamples = 5\nvalue = [1, 1, 3]\nclass = ulo:Watching"] ;
11 -> 13 ;
14 [label="gini = 0.0\nsamples = 3\nvalue = [0, 0, 3]\nclass = ulo:Watching"] ;
13 -> 14 ;
15 [label="X[3] <= 0.0317\ngini = 0.5\nsamples = 2\nvalue = [1, 1, 0]\nclass = ulo:Eating"] ;
13 -> 15 ;
16 [label="gini = 0.0\nsamples = 1\nvalue = [1, 0, 0]\nclass = ulo:Eating"] ;
15 -> 16 ;
17 [label="gini = 0.0\nsamples = 1\nvalue = [0, 1, 0]\nclass = ulo:Shopping"] ;
15 -> 17 ;
18 [label="X[6] <= 0.0005\ngini = 0.6621\nsamples = 21\nvalue = [8, 7, 6]\nclass = ulo:Eating"] ;
0 -> 18 [labeldistance=2.5, labelangle=-45, headlabel="False"] ;
19 [label="X[11] <= 0.4146\ngini = 0.2188\nsamples = 8\nvalue = [1, 7, 0]\nclass = ulo:Shopping"] ;
18 -> 19 ;
20 [label="gini = 0.0\nsamples = 7\nvalue = [0, 7, 0]\nclass = ulo:Shopping"] ;
19 -> 20 ;
21 [label="gini = 0.0\nsamples = 1\nvalue = [1, 0, 0]\nclass = ulo:Eating"] ;
19 -> 21 ;
22 [label="X[4] <= 0.0005\ngini = 0.497\nsamples = 13\nvalue = [7, 0, 6]\nclass = ulo:Eating"] ;
18 -> 22 ;
23 [label="X[15] <= 0.1202\ngini = 0.4444\nsamples = 9\nvalue = [3, 0, 6]\nclass = ulo:Watching"] ;
22 -> 23 ;
24 [label="gini = 0.0\nsamples = 6\nvalue = [0, 0, 6]\nclass = ulo:Watching"] ;
23 -> 24 ;
25 [label="gini = 0.0\nsamples = 3\nvalue = [3, 0, 0]\nclass = ulo:Eating"] ;
23 -> 25 ;
26 [label="gini = 0.0\nsamples = 4\nvalue = [4, 0, 0]\nclass = ulo:Eating"] ;
22 -> 26 ;
}