digraph Tree {
node [shape=box] ;
0 [label="X[110] <= 0.2135\ngini = 0.9642\nsamples = 153\nvalue = [1, 1, 3, 2, 6, 2, 5, 1, 3, 2, 1, 1, 1, 2, 1, 1, 2, 1\n16, 3, 1, 1, 3, 6, 9, 1, 1, 2, 1, 2, 2, 1, 1, 1, 2, 1\n3, 1, 2, 1, 2, 1, 1, 2, 9, 1, 1, 1, 6, 2, 1, 1, 1, 2\n1, 5, 1, 10, 5, 1, 2]\nclass = ulo:Eating|ulo:Food"] ;
1 [label="X[97] <= 0.0931\ngini = 0.9636\nsamples = 137\nvalue = [1, 1, 3, 2, 6, 2, 5, 1, 3, 1, 1, 1, 1, 2, 1, 1, 2, 1\n15, 2, 1, 1, 3, 6, 9, 0, 1, 2, 1, 2, 2, 1, 1, 1, 2, 1\n3, 1, 2, 1, 1, 1, 1, 2, 9, 1, 1, 1, 6, 1, 1, 1, 1, 1\n1, 5, 1, 2, 4, 1, 2]\nclass = ulo:Eating|ulo:Food"] ;
0 -> 1 [labeldistance=2.5, labelangle=45, headlabel="True"] ;
2 [label="X[103] <= 0.031\ngini = 0.9637\nsamples = 91\nvalue = [1, 1, 3, 2, 6, 2, 1, 0, 2, 1, 1, 0, 1, 2, 0, 0, 1, 1\n5, 1, 1, 0, 1, 4, 0, 0, 1, 0, 1, 0, 1, 1, 0, 1, 2, 1\n3, 1, 2, 1, 1, 0, 1, 2, 9, 1, 1, 1, 6, 1, 1, 1, 1, 1\n1, 3, 1, 0, 4, 1, 2]\nclass = ulo:Shopping|ulo:Fashion"] ;
1 -> 2 ;
3 [label="X[76] <= 0.5\ngini = 0.9633\nsamples = 65\nvalue = [1, 1, 3, 2, 6, 2, 1, 0, 2, 0, 1, 0, 1, 2, 0, 0, 1, 1\n5, 1, 1, 0, 1, 2, 0, 0, 0, 0, 1, 0, 1, 1, 0, 1, 2, 0\n3, 1, 1, 1, 0, 0, 0, 1, 0, 1, 0, 1, 2, 0, 1, 0, 1, 1\n1, 3, 1, 0, 3, 1, 2]\nclass = ulo:Drinking|ulo:Beer"] ;
2 -> 3 ;
4 [label="X[98] <= 0.8733\ngini = 0.962\nsamples = 62\nvalue = [1, 1, 3, 2, 6, 2, 1, 0, 2, 0, 1, 0, 1, 2, 0, 0, 1, 1\n5, 1, 1, 0, 1, 2, 0, 0, 0, 0, 1, 0, 1, 1, 0, 1, 2, 0\n0, 1, 1, 1, 0, 0, 0, 1, 0, 1, 0, 1, 2, 0, 1, 0, 1, 1\n1, 3, 1, 0, 3, 1, 2]\nclass = ulo:Drinking|ulo:Beer"] ;
3 -> 4 ;
5 [label="gini = 0.9591\nsamples = 57\nvalue = [1, 1, 3, 2, 6, 1, 1, 0, 2, 0, 1, 0, 0, 2, 0, 0, 1, 1\n5, 1, 1, 0, 1, 2, 0, 0, 0, 0, 1, 0, 1, 1, 0, 1, 2, 0\n0, 1, 1, 1, 0, 0, 0, 1, 0, 1, 0, 1, 2, 0, 1, 0, 1, 1\n1, 0, 1, 0, 3, 1, 2]\nclass = ulo:Drinking|ulo:Beer"] ;
4 -> 5 ;
6 [label="gini = 0.56\nsamples = 5\nvalue = [0, 0, 0, 0, 0, 1, 0, 0, 0, 0, 0, 0, 1, 0, 0, 0, 0, 0\n0, 0, 0, 0, 0, 0, 0, 0, 0, 0, 0, 0, 0, 0, 0, 0, 0, 0\n0, 0, 0, 0, 0, 0, 0, 0, 0, 0, 0, 0, 0, 0, 0, 0, 0, 0\n0, 3, 0, 0, 0, 0, 0]\nclass = ulo:Sitting|ulo:Terrace"] ;
4 -> 6 ;
7 [label="gini = 0.0\nsamples = 3\nvalue = [0, 0, 0, 0, 0, 0, 0, 0, 0, 0, 0, 0, 0, 0, 0, 0, 0, 0\n0, 0, 0, 0, 0, 0, 0, 0, 0, 0, 0, 0, 0, 0, 0, 0, 0, 0\n3, 0, 0, 0, 0, 0, 0, 0, 0, 0, 0, 0, 0, 0, 0, 0, 0, 0\n0, 0, 0, 0, 0, 0, 0]\nclass = ulo:Relaxing|ulo:Grass"] ;
3 -> 7 ;
8 [label="X[110] <= 0.0699\ngini = 0.8343\nsamples = 26\nvalue = [0, 0, 0, 0, 0, 0, 0, 0, 0, 1, 0, 0, 0, 0, 0, 0, 0, 0\n0, 0, 0, 0, 0, 2, 0, 0, 1, 0, 0, 0, 0, 0, 0, 0, 0, 1\n0, 0, 1, 0, 1, 0, 1, 1, 9, 0, 1, 0, 4, 1, 0, 1, 0, 0\n0, 0, 0, 0, 1, 0, 0]\nclass = ulo:Shopping|ulo:Fashion"] ;
2 -> 8 ;
9 [label="X[104] <= 0.0006\ngini = 0.9086\nsamples = 19\nvalue = [0, 0, 0, 0, 0, 0, 0, 0, 0, 1, 0, 0, 0, 0, 0, 0, 0, 0\n0, 0, 0, 0, 0, 2, 0, 0, 1, 0, 0, 0, 0, 0, 0, 0, 0, 1\n0, 0, 1, 0, 1, 0, 1, 1, 3, 0, 1, 0, 3, 1, 0, 1, 0, 0\n0, 0, 0, 0, 1, 0, 0]\nclass = ulo:Shopping|ulo:Fashion"] ;
8 -> 9 ;
10 [label="gini = 0.8757\nsamples = 13\nvalue = [0, 0, 0, 0, 0, 0, 0, 0, 0, 1, 0, 0, 0, 0, 0, 0, 0, 0\n0, 0, 0, 0, 0, 2, 0, 0, 0, 0, 0, 0, 0, 0, 0, 0, 0, 1\n0, 0, 1, 0, 0, 0, 1, 1, 3, 0, 1, 0, 0, 1, 0, 1, 0, 0\n0, 0, 0, 0, 0, 0, 0]\nclass = ulo:Shopping|ulo:Fashion"] ;
9 -> 10 ;
11 [label="gini = 0.6667\nsamples = 6\nvalue = [0, 0, 0, 0, 0, 0, 0, 0, 0, 0, 0, 0, 0, 0, 0, 0, 0, 0\n0, 0, 0, 0, 0, 0, 0, 0, 1, 0, 0, 0, 0, 0, 0, 0, 0, 0\n0, 0, 0, 0, 1, 0, 0, 0, 0, 0, 0, 0, 3, 0, 0, 0, 0, 0\n0, 0, 0, 0, 1, 0, 0]\nclass = ulo:Shopping|ulo:Gifts"] ;
9 -> 11 ;
12 [label="X[111] <= 0.2055\ngini = 0.2449\nsamples = 7\nvalue = [0, 0, 0, 0, 0, 0, 0, 0, 0, 0, 0, 0, 0, 0, 0, 0, 0, 0\n0, 0, 0, 0, 0, 0, 0, 0, 0, 0, 0, 0, 0, 0, 0, 0, 0, 0\n0, 0, 0, 0, 0, 0, 0, 0, 6, 0, 0, 0, 1, 0, 0, 0, 0, 0\n0, 0, 0, 0, 0, 0, 0]\nclass = ulo:Shopping|ulo:Fashion"] ;
8 -> 12 ;
13 [label="gini = 0.0\nsamples = 6\nvalue = [0, 0, 0, 0, 0, 0, 0, 0, 0, 0, 0, 0, 0, 0, 0, 0, 0, 0\n0, 0, 0, 0, 0, 0, 0, 0, 0, 0, 0, 0, 0, 0, 0, 0, 0, 0\n0, 0, 0, 0, 0, 0, 0, 0, 6, 0, 0, 0, 0, 0, 0, 0, 0, 0\n0, 0, 0, 0, 0, 0, 0]\nclass = ulo:Shopping|ulo:Fashion"] ;
12 -> 13 ;
14 [label="gini = 0.0\nsamples = 1\nvalue = [0, 0, 0, 0, 0, 0, 0, 0, 0, 0, 0, 0, 0, 0, 0, 0, 0, 0\n0, 0, 0, 0, 0, 0, 0, 0, 0, 0, 0, 0, 0, 0, 0, 0, 0, 0\n0, 0, 0, 0, 0, 0, 0, 0, 0, 0, 0, 0, 1, 0, 0, 0, 0, 0\n0, 0, 0, 0, 0, 0, 0]\nclass = ulo:Shopping|ulo:Gifts"] ;
12 -> 14 ;
15 [label="X[106] <= 0.0007\ngini = 0.8904\nsamples = 46\nvalue = [0, 0, 0, 0, 0, 0, 4, 1, 1, 0, 0, 1, 0, 0, 1, 1, 1, 0\n10, 1, 0, 1, 2, 2, 9, 0, 0, 2, 0, 2, 1, 0, 1, 0, 0, 0\n0, 0, 0, 0, 0, 1, 0, 0, 0, 0, 0, 0, 0, 0, 0, 0, 0, 0\n0, 2, 0, 2, 0, 0, 0]\nclass = ulo:Eating|ulo:Food"] ;
1 -> 15 ;
16 [label="X[104] <= 0.0004\ngini = 0.625\nsamples = 12\nvalue = [0, 0, 0, 0, 0, 0, 1, 0, 0, 0, 0, 0, 0, 0, 0, 0, 1, 0\n1, 0, 0, 0, 1, 0, 7, 0, 0, 0, 0, 0, 0, 0, 0, 0, 0, 0\n0, 0, 0, 0, 0, 0, 0, 0, 0, 0, 0, 0, 0, 0, 0, 0, 0, 0\n0, 1, 0, 0, 0, 0, 0]\nclass = ulo:Eating|ulo:Lunch"] ;
15 -> 16 ;
17 [label="X[5] <= 0.5\ngini = 0.2188\nsamples = 8\nvalue = [0, 0, 0, 0, 0, 0, 0, 0, 0, 0, 0, 0, 0, 0, 0, 0, 0, 0\n0, 0, 0, 0, 1, 0, 7, 0, 0, 0, 0, 0, 0, 0, 0, 0, 0, 0\n0, 0, 0, 0, 0, 0, 0, 0, 0, 0, 0, 0, 0, 0, 0, 0, 0, 0\n0, 0, 0, 0, 0, 0, 0]\nclass = ulo:Eating|ulo:Lunch"] ;
16 -> 17 ;
18 [label="gini = 0.0\nsamples = 7\nvalue = [0, 0, 0, 0, 0, 0, 0, 0, 0, 0, 0, 0, 0, 0, 0, 0, 0, 0\n0, 0, 0, 0, 0, 0, 7, 0, 0, 0, 0, 0, 0, 0, 0, 0, 0, 0\n0, 0, 0, 0, 0, 0, 0, 0, 0, 0, 0, 0, 0, 0, 0, 0, 0, 0\n0, 0, 0, 0, 0, 0, 0]\nclass = ulo:Eating|ulo:Lunch"] ;
17 -> 18 ;
19 [label="gini = 0.0\nsamples = 1\nvalue = [0, 0, 0, 0, 0, 0, 0, 0, 0, 0, 0, 0, 0, 0, 0, 0, 0, 0\n0, 0, 0, 0, 1, 0, 0, 0, 0, 0, 0, 0, 0, 0, 0, 0, 0, 0\n0, 0, 0, 0, 0, 0, 0, 0, 0, 0, 0, 0, 0, 0, 0, 0, 0, 0\n0, 0, 0, 0, 0, 0, 0]\nclass = ulo:Eating|ulo:Ice_Cream"] ;
17 -> 19 ;
20 [label="X[42] <= 0.5\ngini = 0.75\nsamples = 4\nvalue = [0, 0, 0, 0, 0, 0, 1, 0, 0, 0, 0, 0, 0, 0, 0, 0, 1, 0\n1, 0, 0, 0, 0, 0, 0, 0, 0, 0, 0, 0, 0, 0, 0, 0, 0, 0\n0, 0, 0, 0, 0, 0, 0, 0, 0, 0, 0, 0, 0, 0, 0, 0, 0, 0\n0, 1, 0, 0, 0, 0, 0]\nclass = ulo:Drinking|ulo:Coffee"] ;
16 -> 20 ;
21 [label="gini = 0.6667\nsamples = 3\nvalue = [0, 0, 0, 0, 0, 0, 0, 0, 0, 0, 0, 0, 0, 0, 0, 0, 1, 0\n1, 0, 0, 0, 0, 0, 0, 0, 0, 0, 0, 0, 0, 0, 0, 0, 0, 0\n0, 0, 0, 0, 0, 0, 0, 0, 0, 0, 0, 0, 0, 0, 0, 0, 0, 0\n0, 1, 0, 0, 0, 0, 0]\nclass = ulo:Eating|ulo:Fast_Food"] ;
20 -> 21 ;
22 [label="gini = 0.0\nsamples = 1\nvalue = [0, 0, 0, 0, 0, 0, 1, 0, 0, 0, 0, 0, 0, 0, 0, 0, 0, 0\n0, 0, 0, 0, 0, 0, 0, 0, 0, 0, 0, 0, 0, 0, 0, 0, 0, 0\n0, 0, 0, 0, 0, 0, 0, 0, 0, 0, 0, 0, 0, 0, 0, 0, 0, 0\n0, 0, 0, 0, 0, 0, 0]\nclass = ulo:Drinking|ulo:Coffee"] ;
20 -> 22 ;
23 [label="X[111] <= 0.2306\ngini = 0.8945\nsamples = 34\nvalue = [0, 0, 0, 0, 0, 0, 3, 1, 1, 0, 0, 1, 0, 0, 1, 1, 0, 0\n9, 1, 0, 1, 1, 2, 2, 0, 0, 2, 0, 2, 1, 0, 1, 0, 0, 0\n0, 0, 0, 0, 0, 1, 0, 0, 0, 0, 0, 0, 0, 0, 0, 0, 0, 0\n0, 1, 0, 2, 0, 0, 0]\nclass = ulo:Eating|ulo:Food"] ;
15 -> 23 ;
24 [label="X[104] <= 0.0001\ngini = 0.78\nsamples = 21\nvalue = [0, 0, 0, 0, 0, 0, 1, 1, 0, 0, 0, 1, 0, 0, 1, 0, 0, 0\n9, 1, 0, 0, 0, 1, 0, 0, 0, 2, 0, 1, 0, 0, 1, 0, 0, 0\n0, 0, 0, 0, 0, 0, 0, 0, 0, 0, 0, 0, 0, 0, 0, 0, 0, 0\n0, 0, 0, 2, 0, 0, 0]\nclass = ulo:Eating|ulo:Food"] ;
23 -> 24 ;
25 [label="gini = 0.86\nsamples = 10\nvalue = [0, 0, 0, 0, 0, 0, 1, 0, 0, 0, 0, 0, 0, 0, 1, 0, 0, 0\n1, 1, 0, 0, 0, 1, 0, 0, 0, 2, 0, 0, 0, 0, 1, 0, 0, 0\n0, 0, 0, 0, 0, 0, 0, 0, 0, 0, 0, 0, 0, 0, 0, 0, 0, 0\n0, 0, 0, 2, 0, 0, 0]\nclass = ulo:Eating|ulo:Sandwich"] ;
24 -> 25 ;
26 [label="gini = 0.4463\nsamples = 11\nvalue = [0, 0, 0, 0, 0, 0, 0, 1, 0, 0, 0, 1, 0, 0, 0, 0, 0, 0\n8, 0, 0, 0, 0, 0, 0, 0, 0, 0, 0, 1, 0, 0, 0, 0, 0, 0\n0, 0, 0, 0, 0, 0, 0, 0, 0, 0, 0, 0, 0, 0, 0, 0, 0, 0\n0, 0, 0, 0, 0, 0, 0]\nclass = ulo:Eating|ulo:Food"] ;
24 -> 26 ;
27 [label="X[97] <= 0.3489\ngini = 0.8994\nsamples = 13\nvalue = [0, 0, 0, 0, 0, 0, 2, 0, 1, 0, 0, 0, 0, 0, 0, 1, 0, 0\n0, 0, 0, 1, 1, 1, 2, 0, 0, 0, 0, 1, 1, 0, 0, 0, 0, 0\n0, 0, 0, 0, 0, 1, 0, 0, 0, 0, 0, 0, 0, 0, 0, 0, 0, 0\n0, 1, 0, 0, 0, 0, 0]\nclass = ulo:Drinking|ulo:Coffee"] ;
23 -> 27 ;
28 [label="gini = 0.88\nsamples = 10\nvalue = [0, 0, 0, 0, 0, 0, 2, 0, 0, 0, 0, 0, 0, 0, 0, 1, 0, 0\n0, 0, 0, 1, 1, 1, 0, 0, 0, 0, 0, 1, 1, 0, 0, 0, 0, 0\n0, 0, 0, 0, 0, 1, 0, 0, 0, 0, 0, 0, 0, 0, 0, 0, 0, 0\n0, 1, 0, 0, 0, 0, 0]\nclass = ulo:Drinking|ulo:Coffee"] ;
27 -> 28 ;
29 [label="gini = 0.4444\nsamples = 3\nvalue = [0, 0, 0, 0, 0, 0, 0, 0, 1, 0, 0, 0, 0, 0, 0, 0, 0, 0\n0, 0, 0, 0, 0, 0, 2, 0, 0, 0, 0, 0, 0, 0, 0, 0, 0, 0\n0, 0, 0, 0, 0, 0, 0, 0, 0, 0, 0, 0, 0, 0, 0, 0, 0, 0\n0, 0, 0, 0, 0, 0, 0]\nclass = ulo:Eating|ulo:Lunch"] ;
27 -> 29 ;
30 [label="X[97] <= 0.0004\ngini = 0.7188\nsamples = 16\nvalue = [0, 0, 0, 0, 0, 0, 0, 0, 0, 1, 0, 0, 0, 0, 0, 0, 0, 0\n1, 1, 0, 0, 0, 0, 0, 1, 0, 0, 0, 0, 0, 0, 0, 0, 0, 0\n0, 0, 0, 0, 1, 0, 0, 0, 0, 0, 0, 0, 0, 1, 0, 0, 0, 1\n0, 0, 0, 8, 1, 0, 0]\nclass = ulo:Watching|ulo:Architecture"] ;
0 -> 30 [labeldistance=2.5, labelangle=-45, headlabel="False"] ;
31 [label="X[115] <= 0.5\ngini = 0.5278\nsamples = 12\nvalue = [0, 0, 0, 0, 0, 0, 0, 0, 0, 0, 0, 0, 0, 0, 0, 0, 0, 0\n1, 0, 0, 0, 0, 0, 0, 1, 0, 0, 0, 0, 0, 0, 0, 0, 0, 0\n0, 0, 0, 0, 0, 0, 0, 0, 0, 0, 0, 0, 0, 0, 0, 0, 0, 1\n0, 0, 0, 8, 1, 0, 0]\nclass = ulo:Watching|ulo:Architecture"] ;
30 -> 31 ;
32 [label="X[96] <= 0.0\ngini = 0.34\nsamples = 10\nvalue = [0, 0, 0, 0, 0, 0, 0, 0, 0, 0, 0, 0, 0, 0, 0, 0, 0, 0\n0, 0, 0, 0, 0, 0, 0, 1, 0, 0, 0, 0, 0, 0, 0, 0, 0, 0\n0, 0, 0, 0, 0, 0, 0, 0, 0, 0, 0, 0, 0, 0, 0, 0, 0, 1\n0, 0, 0, 8, 0, 0, 0]\nclass = ulo:Watching|ulo:Architecture"] ;
31 -> 32 ;
33 [label="gini = 0.0\nsamples = 1\nvalue = [0, 0, 0, 0, 0, 0, 0, 0, 0, 0, 0, 0, 0, 0, 0, 0, 0, 0\n0, 0, 0, 0, 0, 0, 0, 0, 0, 0, 0, 0, 0, 0, 0, 0, 0, 0\n0, 0, 0, 0, 0, 0, 0, 0, 0, 0, 0, 0, 0, 0, 0, 0, 0, 1\n0, 0, 0, 0, 0, 0, 0]\nclass = ulo:Sightseeing|ulo:Architecture"] ;
32 -> 33 ;
34 [label="X[59] <= 0.5\ngini = 0.1975\nsamples = 9\nvalue = [0, 0, 0, 0, 0, 0, 0, 0, 0, 0, 0, 0, 0, 0, 0, 0, 0, 0\n0, 0, 0, 0, 0, 0, 0, 1, 0, 0, 0, 0, 0, 0, 0, 0, 0, 0\n0, 0, 0, 0, 0, 0, 0, 0, 0, 0, 0, 0, 0, 0, 0, 0, 0, 0\n0, 0, 0, 8, 0, 0, 0]\nclass = ulo:Watching|ulo:Architecture"] ;
32 -> 34 ;
35 [label="gini = 0.0\nsamples = 8\nvalue = [0, 0, 0, 0, 0, 0, 0, 0, 0, 0, 0, 0, 0, 0, 0, 0, 0, 0\n0, 0, 0, 0, 0, 0, 0, 0, 0, 0, 0, 0, 0, 0, 0, 0, 0, 0\n0, 0, 0, 0, 0, 0, 0, 0, 0, 0, 0, 0, 0, 0, 0, 0, 0, 0\n0, 0, 0, 8, 0, 0, 0]\nclass = ulo:Watching|ulo:Architecture"] ;
34 -> 35 ;
36 [label="gini = 0.0\nsamples = 1\nvalue = [0, 0, 0, 0, 0, 0, 0, 0, 0, 0, 0, 0, 0, 0, 0, 0, 0, 0\n0, 0, 0, 0, 0, 0, 0, 1, 0, 0, 0, 0, 0, 0, 0, 0, 0, 0\n0, 0, 0, 0, 0, 0, 0, 0, 0, 0, 0, 0, 0, 0, 0, 0, 0, 0\n0, 0, 0, 0, 0, 0, 0]\nclass = ulo:Eating|ulo:Pastry"] ;
34 -> 36 ;
37 [label="X[103] <= 0.0118\ngini = 0.5\nsamples = 2\nvalue = [0, 0, 0, 0, 0, 0, 0, 0, 0, 0, 0, 0, 0, 0, 0, 0, 0, 0\n1, 0, 0, 0, 0, 0, 0, 0, 0, 0, 0, 0, 0, 0, 0, 0, 0, 0\n0, 0, 0, 0, 0, 0, 0, 0, 0, 0, 0, 0, 0, 0, 0, 0, 0, 0\n0, 0, 0, 0, 1, 0, 0]\nclass = ulo:Eating|ulo:Food"] ;
31 -> 37 ;
38 [label="gini = 0.0\nsamples = 1\nvalue = [0, 0, 0, 0, 0, 0, 0, 0, 0, 0, 0, 0, 0, 0, 0, 0, 0, 0\n1, 0, 0, 0, 0, 0, 0, 0, 0, 0, 0, 0, 0, 0, 0, 0, 0, 0\n0, 0, 0, 0, 0, 0, 0, 0, 0, 0, 0, 0, 0, 0, 0, 0, 0, 0\n0, 0, 0, 0, 0, 0, 0]\nclass = ulo:Eating|ulo:Food"] ;
37 -> 38 ;
39 [label="gini = 0.0\nsamples = 1\nvalue = [0, 0, 0, 0, 0, 0, 0, 0, 0, 0, 0, 0, 0, 0, 0, 0, 0, 0\n0, 0, 0, 0, 0, 0, 0, 0, 0, 0, 0, 0, 0, 0, 0, 0, 0, 0\n0, 0, 0, 0, 0, 0, 0, 0, 0, 0, 0, 0, 0, 0, 0, 0, 0, 0\n0, 0, 0, 0, 1, 0, 0]\nclass = ulo:Watching|ulo:Exhibition"] ;
37 -> 39 ;
40 [label="X[101] <= 0.0005\ngini = 0.75\nsamples = 4\nvalue = [0, 0, 0, 0, 0, 0, 0, 0, 0, 1, 0, 0, 0, 0, 0, 0, 0, 0\n0, 1, 0, 0, 0, 0, 0, 0, 0, 0, 0, 0, 0, 0, 0, 0, 0, 0\n0, 0, 0, 0, 1, 0, 0, 0, 0, 0, 0, 0, 0, 1, 0, 0, 0, 0\n0, 0, 0, 0, 0, 0, 0]\nclass = ulo:Drinking|ulo:Wine"] ;
30 -> 40 ;
41 [label="gini = 0.0\nsamples = 1\nvalue = [0, 0, 0, 0, 0, 0, 0, 0, 0, 0, 0, 0, 0, 0, 0, 0, 0, 0\n0, 0, 0, 0, 0, 0, 0, 0, 0, 0, 0, 0, 0, 0, 0, 0, 0, 0\n0, 0, 0, 0, 0, 0, 0, 0, 0, 0, 0, 0, 0, 1, 0, 0, 0, 0\n0, 0, 0, 0, 0, 0, 0]\nclass = ulo:Shopping|ulo:Goods"] ;
40 -> 41 ;
42 [label="X[107] <= 0.0006\ngini = 0.6667\nsamples = 3\nvalue = [0, 0, 0, 0, 0, 0, 0, 0, 0, 1, 0, 0, 0, 0, 0, 0, 0, 0\n0, 1, 0, 0, 0, 0, 0, 0, 0, 0, 0, 0, 0, 0, 0, 0, 0, 0\n0, 0, 0, 0, 1, 0, 0, 0, 0, 0, 0, 0, 0, 0, 0, 0, 0, 0\n0, 0, 0, 0, 0, 0, 0]\nclass = ulo:Drinking|ulo:Wine"] ;
40 -> 42 ;
43 [label="gini = 0.0\nsamples = 1\nvalue = [0, 0, 0, 0, 0, 0, 0, 0, 0, 0, 0, 0, 0, 0, 0, 0, 0, 0\n0, 0, 0, 0, 0, 0, 0, 0, 0, 0, 0, 0, 0, 0, 0, 0, 0, 0\n0, 0, 0, 0, 1, 0, 0, 0, 0, 0, 0, 0, 0, 0, 0, 0, 0, 0\n0, 0, 0, 0, 0, 0, 0]\nclass = ulo:Shopping|ulo:Art"] ;
42 -> 43 ;
44 [label="X[105] <= 0.0043\ngini = 0.5\nsamples = 2\nvalue = [0, 0, 0, 0, 0, 0, 0, 0, 0, 1, 0, 0, 0, 0, 0, 0, 0, 0\n0, 1, 0, 0, 0, 0, 0, 0, 0, 0, 0, 0, 0, 0, 0, 0, 0, 0\n0, 0, 0, 0, 0, 0, 0, 0, 0, 0, 0, 0, 0, 0, 0, 0, 0, 0\n0, 0, 0, 0, 0, 0, 0]\nclass = ulo:Drinking|ulo:Wine"] ;
42 -> 44 ;
45 [label="gini = 0.0\nsamples = 1\nvalue = [0, 0, 0, 0, 0, 0, 0, 0, 0, 1, 0, 0, 0, 0, 0, 0, 0, 0\n0, 0, 0, 0, 0, 0, 0, 0, 0, 0, 0, 0, 0, 0, 0, 0, 0, 0\n0, 0, 0, 0, 0, 0, 0, 0, 0, 0, 0, 0, 0, 0, 0, 0, 0, 0\n0, 0, 0, 0, 0, 0, 0]\nclass = ulo:Drinking|ulo:Wine"] ;
44 -> 45 ;
46 [label="gini = 0.0\nsamples = 1\nvalue = [0, 0, 0, 0, 0, 0, 0, 0, 0, 0, 0, 0, 0, 0, 0, 0, 0, 0\n0, 1, 0, 0, 0, 0, 0, 0, 0, 0, 0, 0, 0, 0, 0, 0, 0, 0\n0, 0, 0, 0, 0, 0, 0, 0, 0, 0, 0, 0, 0, 0, 0, 0, 0, 0\n0, 0, 0, 0, 0, 0, 0]\nclass = ulo:Eating|ulo:French_Cuisine"] ;
44 -> 46 ;
}